digraph Tree {
node [shape=box, style="filled", color="black", fontname="helvetica"] ;
edge [fontname="helvetica"] ;
0 [label="worst concave points <= 0.136\nentropy = 0.96\nsamples = 426\nvalue = [163, 263]\nclass = 1", fillcolor="#b4daf5"] ;
1 [label="worst area <= 929.8\nentropy = 0.353\nsamples = 270\nvalue = [18, 252]\nclass = 1", fillcolor="#47a4e7"] ;
0 -> 1 [labeldistance=2.5, labelangle=45, headlabel="True"] ;
2 [label="area error <= 38.605\nentropy = 0.117\nsamples = 254\nvalue = [4, 250]\nclass = 1", fillcolor="#3c9fe5"] ;
1 -> 2 ;
3 [label="smoothness error <= 0.003\nentropy = 0.039\nsamples = 242\nvalue = [1, 241]\nclass = 1", fillcolor="#3a9de5"] ;
2 -> 3 ;
4 [label="mean symmetry <= 0.176\nentropy = 0.811\nsamples = 4\nvalue = [1, 3]\nclass = 1", fillcolor="#7bbeee"] ;
3 -> 4 ;
5 [label="entropy = 0.0\nsamples = 3\nvalue = [0, 3]\nclass = 1", fillcolor="#399de5"] ;
4 -> 5 ;
6 [label="entropy = 0.0\nsamples = 1\nvalue = [1, 0]\nclass = 0", fillcolor="#e58139"] ;
4 -> 6 ;
7 [label="entropy = 0.0\nsamples = 238\nvalue = [0, 238]\nclass = 1", fillcolor="#399de5"] ;
3 -> 7 ;
8 [label="worst compactness <= 0.082\nentropy = 0.811\nsamples = 12\nvalue = [3, 9]\nclass = 1", fillcolor="#7bbeee"] ;
2 -> 8 ;
9 [label="entropy = 0.0\nsamples = 2\nvalue = [2, 0]\nclass = 0", fillcolor="#e58139"] ;
8 -> 9 ;
10 [label="concavity error <= 0.053\nentropy = 0.469\nsamples = 10\nvalue = [1, 9]\nclass = 1", fillcolor="#4fa8e8"] ;
8 -> 10 ;
11 [label="entropy = 0.0\nsamples = 9\nvalue = [0, 9]\nclass = 1", fillcolor="#399de5"] ;
10 -> 11 ;
12 [label="entropy = 0.0\nsamples = 1\nvalue = [1, 0]\nclass = 0", fillcolor="#e58139"] ;
10 -> 12 ;
13 [label="worst concave points <= 0.092\nentropy = 0.544\nsamples = 16\nvalue = [14, 2]\nclass = 0", fillcolor="#e99355"] ;
1 -> 13 ;
14 [label="concave points error <= 0.01\nentropy = 1.0\nsamples = 4\nvalue = [2, 2]\nclass = 0", fillcolor="#ffffff"] ;
13 -> 14 ;
15 [label="entropy = 0.0\nsamples = 2\nvalue = [2, 0]\nclass = 0", fillcolor="#e58139"] ;
14 -> 15 ;
16 [label="entropy = 0.0\nsamples = 2\nvalue = [0, 2]\nclass = 1", fillcolor="#399de5"] ;
14 -> 16 ;
17 [label="entropy = 0.0\nsamples = 12\nvalue = [12, 0]\nclass = 0", fillcolor="#e58139"] ;
13 -> 17 ;
18 [label="worst perimeter <= 114.65\nentropy = 0.368\nsamples = 156\nvalue = [145, 11]\nclass = 0", fillcolor="#e78b48"] ;
0 -> 18 [labeldistance=2.5, labelangle=-45, headlabel="False"] ;
19 [label="worst texture <= 25.67\nentropy = 0.888\nsamples = 36\nvalue = [25, 11]\nclass = 0", fillcolor="#f0b890"] ;
18 -> 19 ;
20 [label="worst smoothness <= 0.136\nentropy = 0.863\nsamples = 14\nvalue = [4, 10]\nclass = 1", fillcolor="#88c4ef"] ;
19 -> 20 ;
21 [label="entropy = 0.0\nsamples = 8\nvalue = [0, 8]\nclass = 1", fillcolor="#399de5"] ;
20 -> 21 ;
22 [label="perimeter error <= 1.921\nentropy = 0.918\nsamples = 6\nvalue = [4, 2]\nclass = 0", fillcolor="#f2c09c"] ;
20 -> 22 ;
23 [label="entropy = 0.0\nsamples = 2\nvalue = [0, 2]\nclass = 1", fillcolor="#399de5"] ;
22 -> 23 ;
24 [label="entropy = 0.0\nsamples = 4\nvalue = [4, 0]\nclass = 0", fillcolor="#e58139"] ;
22 -> 24 ;
25 [label="perimeter error <= 1.529\nentropy = 0.267\nsamples = 22\nvalue = [21, 1]\nclass = 0", fillcolor="#e68742"] ;
19 -> 25 ;
26 [label="mean concavity <= 0.084\nentropy = 1.0\nsamples = 2\nvalue = [1, 1]\nclass = 0", fillcolor="#ffffff"] ;
25 -> 26 ;
27 [label="entropy = 0.0\nsamples = 1\nvalue = [1, 0]\nclass = 0", fillcolor="#e58139"] ;
26 -> 27 ;
28 [label="entropy = 0.0\nsamples = 1\nvalue = [0, 1]\nclass = 1", fillcolor="#399de5"] ;
26 -> 28 ;
29 [label="entropy = 0.0\nsamples = 20\nvalue = [20, 0]\nclass = 0", fillcolor="#e58139"] ;
25 -> 29 ;
30 [label="entropy = 0.0\nsamples = 120\nvalue = [120, 0]\nclass = 0", fillcolor="#e58139"] ;
18 -> 30 ;
}